0,0708861351013184,0,25993549823761,0,241239607334137,-0,298931360244751,0,19305656850338,-0,0409151911735535,0,137910693883896,-0,328980803489685,0,0445939153432846,0,477794408798218,-0,32354599237442,0,0345075577497482,-0,172040343284607,-0,30881655216217,0,458181858062744,-0,256174743175507,0,131751343607903,0,436040282249451,0,20778314769268,-0,0450017899274826,0,197145760059357,0,0396827906370163,-0,324702978134155,0,211950406432152,0,285955250263214,-0,439639687538147,0,259075939655304,0,197021007537842,0,22716224193573,-0,179199323058128,-0,427715837955475,-0,333075940608978,-0,137192294001579,0,467009723186493,-0,0263916254043579,0,184792205691338,0,094867467880249,-0,450261175632477,0,267321288585663,-0,214791938662529,-0,459983170032501,0,159946292638779,0,428984403610229,-0,448081851005554,-0,110588908195496,-0,226675152778625,0,425820231437683,-0,403124094009399,-0,405072569847107,-0,200717866420746,-0,128195762634277,-0,0496395081281662,0,163554474711418,-0,327412605285645,0,259681433439255,0,298813015222549,-0,277673304080963,0,149633884429932,-0,114416137337685,0,0152231156826019,-0,168966591358185,0,188586860895157,0,226440995931625,0,225308537483215,-0,197553813457489,0,17500564455986,0,229984760284424,-0,00209377706050873,0,215159982442856,0,144776910543442,-0,208416312932968,-0,203910708427429,0,0544869601726532,-0,144879132509232,0,208983540534973,-0,154560297727585,0,196986347436905,0,015336662530899,0,0856456384062767,-0,0798898637294769,0,0530801936984062,0,190605193376541,
